digraph Tree {
node [shape=box, style="filled", color="black"] ;
0 [label="SPD <= 47.5\ngini = 0.461\nsamples = 352\nvalue = [127, 225]\nclass = Male", fillcolor="#a9d4f4"] ;
1 [label="RES <= 12.5\ngini = 0.39\nsamples = 245\nvalue = [65, 180]\nclass = Male", fillcolor="#80c0ee"] ;
0 -> 1 [labeldistance=2.5, labelangle=45, headlabel="True"] ;
2 [label="DEF <= 22.5\ngini = 0.224\nsamples = 101\nvalue = [13, 88]\nclass = Male", fillcolor="#56abe9"] ;
1 -> 2 ;
3 [label="gini = 0.437\nsamples = 31\nvalue = [10, 21]\nclass = Male", fillcolor="#97ccf1"] ;
2 -> 3 ;
4 [label="gini = 0.082\nsamples = 70\nvalue = [3, 67]\nclass = Male", fillcolor="#42a1e6"] ;
2 -> 4 ;
5 [label="HP <= 47.5\ngini = 0.461\nsamples = 144\nvalue = [52, 92]\nclass = Male", fillcolor="#a9d4f4"] ;
1 -> 5 ;
6 [label="gini = 0.5\nsamples = 63\nvalue = [32, 31]\nclass = Female", fillcolor="#fefbf9"] ;
5 -> 6 ;
7 [label="gini = 0.372\nsamples = 81\nvalue = [20, 61]\nclass = Male", fillcolor="#7abdee"] ;
5 -> 7 ;
8 [label="LUC <= 72.5\ngini = 0.487\nsamples = 107\nvalue = [62, 45]\nclass = Female", fillcolor="#f8dcc9"] ;
0 -> 8 [labeldistance=2.5, labelangle=-45, headlabel="False"] ;
9 [label="RES <= 27.5\ngini = 0.498\nsamples = 94\nvalue = [50, 44]\nclass = Female", fillcolor="#fcf0e7"] ;
8 -> 9 ;
10 [label="gini = 0.488\nsamples = 52\nvalue = [22, 30]\nclass = Male", fillcolor="#cae5f8"] ;
9 -> 10 ;
11 [label="gini = 0.444\nsamples = 42\nvalue = [28, 14]\nclass = Female", fillcolor="#f2c09c"] ;
9 -> 11 ;
12 [label="RES <= 60.0\ngini = 0.142\nsamples = 13\nvalue = [12, 1]\nclass = Female", fillcolor="#e78c49"] ;
8 -> 12 ;
13 [label="gini = 0.0\nsamples = 10\nvalue = [10, 0]\nclass = Female", fillcolor="#e58139"] ;
12 -> 13 ;
14 [label="gini = 0.444\nsamples = 3\nvalue = [2, 1]\nclass = Female", fillcolor="#f2c09c"] ;
12 -> 14 ;
}